          16           1           3           3
  0.77670621258746753      -0.25775861030771652        9.0450901647055187E-002  0.43811112320141793       0.32659036197479102      -0.62529926605391806      -0.62936874105427665      -0.22737963454344140      -0.28302557600815248      -0.25830219341799721       0.13823136254599841       0.62091455200620171       0.25605751453581910      -0.41925207836095973      -0.74495406788293927       0.65728233711881767      -0.21216142577016311       0.22404740918803723      -0.73676619290930401      -0.27156804904728277      -0.21326054485912402      -0.52537245623275108      -0.67065757250743552      -0.59495356588843684      -0.27866925377172869       0.30635726953421838      -0.38384399134499408      -0.12056743806138562      -0.72301215310666589       0.52429158625408812       -4.5420703527609248E-002 -0.38122633398737832       0.27500157023674748       -5.9467201916235654E-002  0.21086498199447323       0.15244245252497998      -0.16760518086432671       0.17274629325606974      -0.76322359463811673        2.1029534121374399E-002 -0.74678003857139352        5.4680893314755626E-002  0.57475707435083589      -0.71126567784832062       -2.9425614542341740E-002 -0.12342292480115115       0.24259866378860545      -0.11264342319571827      -0.25571570870076510       0.28250921128749867      -0.51336598196260186        1.8588474956123570E-002  0.10695867781427948       0.43202067936930177       0.36978780406054829       0.27942641692817960        4.1372721190854569E-002  0.47687589742082764      -0.60902097527592991       0.20798305275976228       0.17388740790062546       0.16087608277725884       0.49045888303347651       -7.3168766862205137E-002 -0.79404012737202290        5.0992334213437920E-002 -0.24477049304113879       0.44196511892242585      -0.43170251234323515      -0.50182708644495022      -0.78767863613405220       0.75087492285609947      -0.67786265745242602      -0.24866090178355757      -0.65565389502528104      -0.25311663315731486       0.58573461244687031      -0.36788403284527033      -0.70809221406381240      -0.51635320201836710       0.55413830129248010      -0.76351126308373041      -0.10133895176526539       -9.9839446505130838E-002  -6.9377445137063301E-002  -3.1523273839516842E-002 -0.66137467461368482       0.35470989231726180      -0.23422166355082122       0.70850422182474548      -0.64066399103171379      -0.58185599765525386      -0.67774940234613534       0.35834055353943312       0.67967039796215600      -0.27149197841807476      -0.26535272192700404       0.73717971011759020      -0.75123179645806382       0.80834514964825566       0.77661735542936217       0.57285261571665225       0.56242859372888176       0.24739377573316815       0.28447665911304132        7.5015634678896714E-002 -0.43242203936458939      -0.44458780263172992      -0.58010711705955331      -0.77584089801861500       0.80426469117532817       0.37332862694070218       0.72248937199244068       0.48940238829767513      -0.48603092196716252      -0.24239105168160369      -0.61403848446710685      -0.12778477219353368        6.1337741443328389E-002  0.56619137592573332      -0.35783886503060375       -7.6007109405682394E-002  0.45971852035131988       -4.9345827008588097E-002  0.53353515445112210       0.59755964072568690       0.57005358459669020       0.25099591395424675       0.44330319599765500       0.76664988505528164      -0.17107074917962026      -0.73972480686679587      -0.45896683283828804      -0.49799677060804159      -0.62315005013358704      -0.79020546172124828       0.25006678373469626      -0.24267929696513962      -0.11468327427351159       0.30593469108112009        9.5703251531200403E-003  0.13895587710050053        2.7652179214520733E-002 -0.75361582465225063     
   0.0000000000000000        0.0000000000000000        0.0000000000000000        0.0000000000000000        0.0000000000000000        0.0000000000000000        0.0000000000000000        0.0000000000000000        0.0000000000000000        0.0000000000000000        0.0000000000000000        0.0000000000000000        0.0000000000000000        0.0000000000000000        0.0000000000000000        0.0000000000000000     
